digraph Tree {
node [shape=box, style="filled, rounded", color="black", fontname=helvetica] ;
edge [fontname=helvetica] ;
0 [label="petal length (cm) <= 2.45\ngini = 0.67\nsamples = 96\nvalue = [47, 54, 49]\nclass = versicolor", fillcolor="#f5fef9"] ;
1 [label="gini = 0.0\nsamples = 32\nvalue = [47, 0, 0]\nclass = setosa", fillcolor="#e58139"] ;
0 -> 1 [labeldistance=2.5, labelangle=45, headlabel="True"] ;
2 [label="petal width (cm) <= 1.75\ngini = 0.5\nsamples = 64\nvalue = [0, 54, 49]\nclass = versicolor", fillcolor="#edfdf3"] ;
0 -> 2 [labeldistance=2.5, labelangle=-45, headlabel="False"] ;
3 [label="petal width (cm) <= 1.45\ngini = 0.16\nsamples = 32\nvalue = [0, 53, 5]\nclass = versicolor", fillcolor="#4ce78d"] ;
2 -> 3 ;
4 [label="gini = 0.0\nsamples = 20\nvalue = [0, 35, 0]\nclass = versicolor", fillcolor="#39e581"] ;
3 -> 4 ;
5 [label="sepal width (cm) <= 2.35\ngini = 0.34\nsamples = 12\nvalue = [0, 18, 5]\nclass = versicolor", fillcolor="#70eca4"] ;
3 -> 5 ;
6 [label="sepal length (cm) <= 6.1\ngini = 0.5\nsamples = 2\nvalue = [0, 2, 2]\nclass = versicolor", fillcolor="#ffffff"] ;
5 -> 6 ;
7 [label="gini = 0.0\nsamples = 1\nvalue = [0, 0, 2]\nclass = virginica", fillcolor="#8139e5"] ;
6 -> 7 ;
8 [label="gini = 0.0\nsamples = 1\nvalue = [0, 2, 0]\nclass = versicolor", fillcolor="#39e581"] ;
6 -> 8 ;
9 [label="petal width (cm) <= 1.55\ngini = 0.27\nsamples = 10\nvalue = [0, 16, 3]\nclass = versicolor", fillcolor="#5eea99"] ;
5 -> 9 ;
10 [label="sepal length (cm) <= 6.1\ngini = 0.14\nsamples = 7\nvalue = [0, 12, 1]\nclass = versicolor", fillcolor="#49e78c"] ;
9 -> 10 ;
11 [label="gini = 0.0\nsamples = 2\nvalue = [0, 5, 0]\nclass = versicolor", fillcolor="#39e581"] ;
10 -> 11 ;
12 [label="sepal width (cm) <= 2.65\ngini = 0.22\nsamples = 5\nvalue = [0, 7, 1]\nclass = versicolor", fillcolor="#55e993"] ;
10 -> 12 ;
13 [label="gini = 0.0\nsamples = 1\nvalue = [0, 4, 0]\nclass = versicolor", fillcolor="#39e581"] ;
12 -> 13 ;
14 [label="petal length (cm) <= 5.0\ngini = 0.38\nsamples = 4\nvalue = [0, 3, 1]\nclass = versicolor", fillcolor="#7beeab"] ;
12 -> 14 ;
15 [label="gini = 0.0\nsamples = 3\nvalue = [0, 3, 0]\nclass = versicolor", fillcolor="#39e581"] ;
14 -> 15 ;
16 [label="gini = 0.0\nsamples = 1\nvalue = [0, 0, 1]\nclass = virginica", fillcolor="#8139e5"] ;
14 -> 16 ;
17 [label="sepal length (cm) <= 6.95\ngini = 0.44\nsamples = 3\nvalue = [0, 4, 2]\nclass = versicolor", fillcolor="#9cf2c0"] ;
9 -> 17 ;
18 [label="gini = 0.0\nsamples = 2\nvalue = [0, 4, 0]\nclass = versicolor", fillcolor="#39e581"] ;
17 -> 18 ;
19 [label="gini = 0.0\nsamples = 1\nvalue = [0, 0, 2]\nclass = virginica", fillcolor="#8139e5"] ;
17 -> 19 ;
20 [label="petal length (cm) <= 4.85\ngini = 0.04\nsamples = 32\nvalue = [0, 1, 44]\nclass = virginica", fillcolor="#843de6"] ;
2 -> 20 ;
21 [label="sepal length (cm) <= 5.95\ngini = 0.44\nsamples = 2\nvalue = [0, 1, 2]\nclass = virginica", fillcolor="#c09cf2"] ;
20 -> 21 ;
22 [label="gini = 0.0\nsamples = 1\nvalue = [0, 1, 0]\nclass = versicolor", fillcolor="#39e581"] ;
21 -> 22 ;
23 [label="gini = 0.0\nsamples = 1\nvalue = [0, 0, 2]\nclass = virginica", fillcolor="#8139e5"] ;
21 -> 23 ;
24 [label="gini = 0.0\nsamples = 30\nvalue = [0, 0, 42]\nclass = virginica", fillcolor="#8139e5"] ;
20 -> 24 ;
}